Language model created by QuickLM on Mon Feb 13 14:03:37 EST 2017
Copyright (c) 1996-2010 Carnegie Mellon University and Alexander I. Rudnicky

The model is in standard ARPA format, designed by Doug Paul while he was at MITRE.

The code that was used to produce this language model is available in Open Source.
Please visit http://www.speech.cs.cmu.edu/tools/ for more information

The (fixed) discount mass is 0.5. The backoffs are computed using the ratio method.
This model based on a corpus of 4 sentences and 6 words

\data\
ngram 1=6
ngram 2=8
ngram 3=4

\1-grams:
-0.7782 </s> -0.3010
-0.7782 <s> -0.2218
-1.3802 LIGHT -0.2218
-1.3802 OFF -0.2218
-1.3802 ON -0.2218
-1.3802 TURN -0.2218

\2-grams:
-0.9031 <s> LIGHT 0.0000
-0.9031 <s> OFF 0.0000
-0.9031 <s> ON 0.0000
-0.9031 <s> TURN 0.0000
-0.3010 LIGHT </s> -0.3010
-0.3010 OFF </s> -0.3010
-0.3010 ON </s> -0.3010
-0.3010 TURN </s> -0.3010

\3-grams:
-0.3010 <s> LIGHT </s>
-0.3010 <s> OFF </s>
-0.3010 <s> ON </s>
-0.3010 <s> TURN </s>

\end\
